digraph Tree {
node [shape=box] ;
0 [label="YearsAtCompany <= 2.5\ngini = 0.273\nsamples = 3307\nvalue = [2767, 540]"] ;
1 [label="Age <= 33.5\ngini = 0.426\nsamples = 808\nvalue = [559, 249]"] ;
0 -> 1 [labeldistance=2.5, labelangle=45, headlabel="True"] ;
2 [label="MaritalStatus <= 1.5\ngini = 0.498\nsamples = 393\nvalue = [208, 185]"] ;
1 -> 2 ;
3 [label="EducationField  <= 0.5\ngini = 0.426\nsamples = 205\nvalue = [142, 63]"] ;
2 -> 3 ;
4 [label="gini = 0.0\nsamples = 6\nvalue = [0, 6]"] ;
3 -> 4 ;
5 [label="JobLevel <= 3.5\ngini = 0.409\nsamples = 199\nvalue = [142, 57]"] ;
3 -> 5 ;
6 [label="MonthlyIncome <= 81420.0\ngini = 0.382\nsamples = 183\nvalue = [136, 47]"] ;
5 -> 6 ;
7 [label="PercentSalaryHike <= 22.5\ngini = 0.43\nsamples = 150\nvalue = [103, 47]"] ;
6 -> 7 ;
8 [label="NumCompaniesWorked <= 5.5\ngini = 0.399\nsamples = 138\nvalue = [100, 38]"] ;
7 -> 8 ;
9 [label="Education <= 2.5\ngini = 0.442\nsamples = 115\nvalue = [77, 38]"] ;
8 -> 9 ;
10 [label="JobRole <= 6.5\ngini = 0.498\nsamples = 36\nvalue = [17, 19]"] ;
9 -> 10 ;
11 [label="NumCompaniesWorked <= 3.5\ngini = 0.453\nsamples = 26\nvalue = [17, 9]"] ;
10 -> 11 ;
12 [label="MonthlyIncome <= 21815.0\ngini = 0.255\nsamples = 20\nvalue = [17, 3]"] ;
11 -> 12 ;
13 [label="gini = 0.0\nsamples = 3\nvalue = [0, 3]"] ;
12 -> 13 ;
14 [label="gini = 0.0\nsamples = 17\nvalue = [17, 0]"] ;
12 -> 14 ;
15 [label="gini = 0.0\nsamples = 6\nvalue = [0, 6]"] ;
11 -> 15 ;
16 [label="gini = 0.0\nsamples = 10\nvalue = [0, 10]"] ;
10 -> 16 ;
17 [label="JobRole <= 6.5\ngini = 0.365\nsamples = 79\nvalue = [60, 19]"] ;
9 -> 17 ;
18 [label="DistanceFromHome <= 2.5\ngini = 0.457\nsamples = 51\nvalue = [33, 18]"] ;
17 -> 18 ;
19 [label="MonthlyIncome <= 20230.0\ngini = 0.32\nsamples = 10\nvalue = [2, 8]"] ;
18 -> 19 ;
20 [label="gini = 0.0\nsamples = 2\nvalue = [2, 0]"] ;
19 -> 20 ;
21 [label="gini = 0.0\nsamples = 8\nvalue = [0, 8]"] ;
19 -> 21 ;
22 [label="Age <= 27.5\ngini = 0.369\nsamples = 41\nvalue = [31, 10]"] ;
18 -> 22 ;
23 [label="gini = 0.0\nsamples = 19\nvalue = [19, 0]"] ;
22 -> 23 ;
24 [label="MaritalStatus <= 0.5\ngini = 0.496\nsamples = 22\nvalue = [12, 10]"] ;
22 -> 24 ;
25 [label="Age <= 28.5\ngini = 0.298\nsamples = 11\nvalue = [9, 2]"] ;
24 -> 25 ;
26 [label="gini = 0.0\nsamples = 2\nvalue = [0, 2]"] ;
25 -> 26 ;
27 [label="gini = 0.0\nsamples = 9\nvalue = [9, 0]"] ;
25 -> 27 ;
28 [label="PercentSalaryHike <= 13.5\ngini = 0.397\nsamples = 11\nvalue = [3, 8]"] ;
24 -> 28 ;
29 [label="gini = 0.0\nsamples = 3\nvalue = [3, 0]"] ;
28 -> 29 ;
30 [label="gini = 0.0\nsamples = 8\nvalue = [0, 8]"] ;
28 -> 30 ;
31 [label="DistanceFromHome <= 12.5\ngini = 0.069\nsamples = 28\nvalue = [27, 1]"] ;
17 -> 31 ;
32 [label="gini = 0.0\nsamples = 21\nvalue = [21, 0]"] ;
31 -> 32 ;
33 [label="StockOptionLevel <= 0.5\ngini = 0.245\nsamples = 7\nvalue = [6, 1]"] ;
31 -> 33 ;
34 [label="gini = 0.0\nsamples = 1\nvalue = [0, 1]"] ;
33 -> 34 ;
35 [label="gini = 0.0\nsamples = 6\nvalue = [6, 0]"] ;
33 -> 35 ;
36 [label="gini = 0.0\nsamples = 23\nvalue = [23, 0]"] ;
8 -> 36 ;
37 [label="JobLevel <= 2.5\ngini = 0.375\nsamples = 12\nvalue = [3, 9]"] ;
7 -> 37 ;
38 [label="gini = 0.0\nsamples = 9\nvalue = [0, 9]"] ;
37 -> 38 ;
39 [label="gini = 0.0\nsamples = 3\nvalue = [3, 0]"] ;
37 -> 39 ;
40 [label="gini = 0.0\nsamples = 33\nvalue = [33, 0]"] ;
6 -> 40 ;
41 [label="MonthlyIncome <= 44795.0\ngini = 0.469\nsamples = 16\nvalue = [6, 10]"] ;
5 -> 41 ;
42 [label="gini = 0.0\nsamples = 6\nvalue = [6, 0]"] ;
41 -> 42 ;
43 [label="gini = 0.0\nsamples = 10\nvalue = [0, 10]"] ;
41 -> 43 ;
44 [label="MonthlyIncome <= 165815.0\ngini = 0.456\nsamples = 188\nvalue = [66, 122]"] ;
2 -> 44 ;
45 [label="StockOptionLevel <= 2.5\ngini = 0.429\nsamples = 173\nvalue = [54, 119]"] ;
44 -> 45 ;
46 [label="JobRole <= 7.5\ngini = 0.396\nsamples = 158\nvalue = [43, 115]"] ;
45 -> 46 ;
47 [label="MonthlyIncome <= 47885.0\ngini = 0.363\nsamples = 151\nvalue = [36, 115]"] ;
46 -> 47 ;
48 [label="MonthlyIncome <= 43145.0\ngini = 0.444\nsamples = 87\nvalue = [29, 58]"] ;
47 -> 48 ;
49 [label="EducationField  <= 2.5\ngini = 0.39\nsamples = 79\nvalue = [21, 58]"] ;
48 -> 49 ;
50 [label="PercentSalaryHike <= 23.0\ngini = 0.245\nsamples = 49\nvalue = [7, 42]"] ;
49 -> 50 ;
51 [label="Age <= 18.5\ngini = 0.159\nsamples = 46\nvalue = [4, 42]"] ;
50 -> 51 ;
52 [label="PercentSalaryHike <= 14.5\ngini = 0.5\nsamples = 6\nvalue = [3, 3]"] ;
51 -> 52 ;
53 [label="gini = 0.0\nsamples = 3\nvalue = [0, 3]"] ;
52 -> 53 ;
54 [label="gini = 0.0\nsamples = 3\nvalue = [3, 0]"] ;
52 -> 54 ;
55 [label="Education <= 3.5\ngini = 0.049\nsamples = 40\nvalue = [1, 39]"] ;
51 -> 55 ;
56 [label="gini = 0.0\nsamples = 34\nvalue = [0, 34]"] ;
55 -> 56 ;
57 [label="YearsWithCurrManager <= 1.0\ngini = 0.278\nsamples = 6\nvalue = [1, 5]"] ;
55 -> 57 ;
58 [label="gini = 0.0\nsamples = 5\nvalue = [0, 5]"] ;
57 -> 58 ;
59 [label="gini = 0.0\nsamples = 1\nvalue = [1, 0]"] ;
57 -> 59 ;
60 [label="gini = 0.0\nsamples = 3\nvalue = [3, 0]"] ;
50 -> 60 ;
61 [label="YearsWithCurrManager <= 0.5\ngini = 0.498\nsamples = 30\nvalue = [14, 16]"] ;
49 -> 61 ;
62 [label="StockOptionLevel <= 1.5\ngini = 0.391\nsamples = 15\nvalue = [11, 4]"] ;
61 -> 62 ;
63 [label="Education <= 4.5\ngini = 0.26\nsamples = 13\nvalue = [11, 2]"] ;
62 -> 63 ;
64 [label="gini = 0.0\nsamples = 11\nvalue = [11, 0]"] ;
63 -> 64 ;
65 [label="gini = 0.0\nsamples = 2\nvalue = [0, 2]"] ;
63 -> 65 ;
66 [label="gini = 0.0\nsamples = 2\nvalue = [0, 2]"] ;
62 -> 66 ;
67 [label="Age <= 21.0\ngini = 0.32\nsamples = 15\nvalue = [3, 12]"] ;
61 -> 67 ;
68 [label="gini = 0.0\nsamples = 3\nvalue = [3, 0]"] ;
67 -> 68 ;
69 [label="gini = 0.0\nsamples = 12\nvalue = [0, 12]"] ;
67 -> 69 ;
70 [label="gini = 0.0\nsamples = 8\nvalue = [8, 0]"] ;
48 -> 70 ;
71 [label="TrainingTimesLastYear <= 1.0\ngini = 0.195\nsamples = 64\nvalue = [7, 57]"] ;
47 -> 71 ;
72 [label="gini = 0.0\nsamples = 2\nvalue = [2, 0]"] ;
71 -> 72 ;
73 [label="PercentSalaryHike <= 13.5\ngini = 0.148\nsamples = 62\nvalue = [5, 57]"] ;
71 -> 73 ;
74 [label="YearsSinceLastPromotion <= 1.5\ngini = 0.36\nsamples = 17\nvalue = [4, 13]"] ;
73 -> 74 ;
75 [label="MonthlyIncome <= 123445.0\ngini = 0.231\nsamples = 15\nvalue = [2, 13]"] ;
74 -> 75 ;
76 [label="gini = 0.0\nsamples = 13\nvalue = [0, 13]"] ;
75 -> 76 ;
77 [label="gini = 0.0\nsamples = 2\nvalue = [2, 0]"] ;
75 -> 77 ;
78 [label="gini = 0.0\nsamples = 2\nvalue = [2, 0]"] ;
74 -> 78 ;
79 [label="TrainingTimesLastYear <= 4.5\ngini = 0.043\nsamples = 45\nvalue = [1, 44]"] ;
73 -> 79 ;
80 [label="gini = 0.0\nsamples = 42\nvalue = [0, 42]"] ;
79 -> 80 ;
81 [label="JobLevel <= 4.0\ngini = 0.444\nsamples = 3\nvalue = [1, 2]"] ;
79 -> 81 ;
82 [label="gini = 0.0\nsamples = 2\nvalue = [0, 2]"] ;
81 -> 82 ;
83 [label="gini = 0.0\nsamples = 1\nvalue = [1, 0]"] ;
81 -> 83 ;
84 [label="gini = 0.0\nsamples = 7\nvalue = [7, 0]"] ;
46 -> 84 ;
85 [label="MonthlyIncome <= 61815.0\ngini = 0.391\nsamples = 15\nvalue = [11, 4]"] ;
45 -> 85 ;
86 [label="gini = 0.0\nsamples = 4\nvalue = [0, 4]"] ;
85 -> 86 ;
87 [label="gini = 0.0\nsamples = 11\nvalue = [11, 0]"] ;
85 -> 87 ;
88 [label="EducationField  <= 3.0\ngini = 0.32\nsamples = 15\nvalue = [12, 3]"] ;
44 -> 88 ;
89 [label="gini = 0.0\nsamples = 12\nvalue = [12, 0]"] ;
88 -> 89 ;
90 [label="gini = 0.0\nsamples = 3\nvalue = [0, 3]"] ;
88 -> 90 ;
91 [label="Age <= 39.5\ngini = 0.261\nsamples = 415\nvalue = [351, 64]"] ;
1 -> 91 ;
92 [label="Age <= 38.5\ngini = 0.357\nsamples = 185\nvalue = [142, 43]"] ;
91 -> 92 ;
93 [label="MaritalStatus <= 0.5\ngini = 0.31\nsamples = 167\nvalue = [135, 32]"] ;
92 -> 93 ;
94 [label="MonthlyIncome <= 41290.0\ngini = 0.48\nsamples = 45\nvalue = [27, 18]"] ;
93 -> 94 ;
95 [label="gini = 0.0\nsamples = 9\nvalue = [0, 9]"] ;
94 -> 95 ;
96 [label="MonthlyIncome <= 122685.0\ngini = 0.375\nsamples = 36\nvalue = [27, 9]"] ;
94 -> 96 ;
97 [label="NumCompaniesWorked <= 6.5\ngini = 0.191\nsamples = 28\nvalue = [25, 3]"] ;
96 -> 97 ;
98 [label="gini = 0.0\nsamples = 23\nvalue = [23, 0]"] ;
97 -> 98 ;
99 [label="YearsAtCompany <= 1.5\ngini = 0.48\nsamples = 5\nvalue = [2, 3]"] ;
97 -> 99 ;
100 [label="gini = 0.0\nsamples = 3\nvalue = [0, 3]"] ;
99 -> 100 ;
101 [label="gini = 0.0\nsamples = 2\nvalue = [2, 0]"] ;
99 -> 101 ;
102 [label="DistanceFromHome <= 3.0\ngini = 0.375\nsamples = 8\nvalue = [2, 6]"] ;
96 -> 102 ;
103 [label="gini = 0.0\nsamples = 2\nvalue = [2, 0]"] ;
102 -> 103 ;
104 [label="gini = 0.0\nsamples = 6\nvalue = [0, 6]"] ;
102 -> 104 ;
105 [label="PercentSalaryHike <= 17.5\ngini = 0.203\nsamples = 122\nvalue = [108, 14]"] ;
93 -> 105 ;
106 [label="Education <= 3.5\ngini = 0.157\nsamples = 105\nvalue = [96, 9]"] ;
105 -> 106 ;
107 [label="JobRole <= 2.5\ngini = 0.076\nsamples = 76\nvalue = [73, 3]"] ;
106 -> 107 ;
108 [label="DistanceFromHome <= 12.5\ngini = 0.278\nsamples = 18\nvalue = [15, 3]"] ;
107 -> 108 ;
109 [label="gini = 0.0\nsamples = 14\nvalue = [14, 0]"] ;
108 -> 109 ;
110 [label="MaritalStatus <= 1.5\ngini = 0.375\nsamples = 4\nvalue = [1, 3]"] ;
108 -> 110 ;
111 [label="gini = 0.0\nsamples = 3\nvalue = [0, 3]"] ;
110 -> 111 ;
112 [label="gini = 0.0\nsamples = 1\nvalue = [1, 0]"] ;
110 -> 112 ;
113 [label="gini = 0.0\nsamples = 58\nvalue = [58, 0]"] ;
107 -> 113 ;
114 [label="MonthlyIncome <= 106070.0\ngini = 0.328\nsamples = 29\nvalue = [23, 6]"] ;
106 -> 114 ;
115 [label="Age <= 34.5\ngini = 0.204\nsamples = 26\nvalue = [23, 3]"] ;
114 -> 115 ;
116 [label="YearsAtCompany <= 1.5\ngini = 0.48\nsamples = 5\nvalue = [2, 3]"] ;
115 -> 116 ;
117 [label="gini = 0.0\nsamples = 2\nvalue = [2, 0]"] ;
116 -> 117 ;
118 [label="gini = 0.0\nsamples = 3\nvalue = [0, 3]"] ;
116 -> 118 ;
119 [label="gini = 0.0\nsamples = 21\nvalue = [21, 0]"] ;
115 -> 119 ;
120 [label="gini = 0.0\nsamples = 3\nvalue = [0, 3]"] ;
114 -> 120 ;
121 [label="TrainingTimesLastYear <= 2.5\ngini = 0.415\nsamples = 17\nvalue = [12, 5]"] ;
105 -> 121 ;
122 [label="EducationField  <= 2.0\ngini = 0.494\nsamples = 9\nvalue = [4, 5]"] ;
121 -> 122 ;
123 [label="gini = 0.0\nsamples = 5\nvalue = [0, 5]"] ;
122 -> 123 ;
124 [label="gini = 0.0\nsamples = 4\nvalue = [4, 0]"] ;
122 -> 124 ;
125 [label="gini = 0.0\nsamples = 8\nvalue = [8, 0]"] ;
121 -> 125 ;
126 [label="JobRole <= 0.5\ngini = 0.475\nsamples = 18\nvalue = [7, 11]"] ;
92 -> 126 ;
127 [label="gini = 0.0\nsamples = 5\nvalue = [5, 0]"] ;
126 -> 127 ;
128 [label="EducationField  <= 4.0\ngini = 0.26\nsamples = 13\nvalue = [2, 11]"] ;
126 -> 128 ;
129 [label="gini = 0.0\nsamples = 11\nvalue = [0, 11]"] ;
128 -> 129 ;
130 [label="gini = 0.0\nsamples = 2\nvalue = [2, 0]"] ;
128 -> 130 ;
131 [label="NumCompaniesWorked <= 8.5\ngini = 0.166\nsamples = 230\nvalue = [209, 21]"] ;
91 -> 131 ;
132 [label="JobRole <= 4.5\ngini = 0.14\nsamples = 224\nvalue = [207, 17]"] ;
131 -> 132 ;
133 [label="Age <= 40.5\ngini = 0.036\nsamples = 108\nvalue = [106, 2]"] ;
132 -> 133 ;
134 [label="MonthlyIncome <= 55340.0\ngini = 0.245\nsamples = 14\nvalue = [12, 2]"] ;
133 -> 134 ;
135 [label="gini = 0.0\nsamples = 12\nvalue = [12, 0]"] ;
134 -> 135 ;
136 [label="gini = 0.0\nsamples = 2\nvalue = [0, 2]"] ;
134 -> 136 ;
137 [label="gini = 0.0\nsamples = 94\nvalue = [94, 0]"] ;
133 -> 137 ;
138 [label="MonthlyIncome <= 100935.0\ngini = 0.225\nsamples = 116\nvalue = [101, 15]"] ;
132 -> 138 ;
139 [label="JobLevel <= 2.5\ngini = 0.167\nsamples = 98\nvalue = [89, 9]"] ;
138 -> 139 ;
140 [label="Education <= 1.5\ngini = 0.072\nsamples = 80\nvalue = [77, 3]"] ;
139 -> 140 ;
141 [label="gini = 0.0\nsamples = 1\nvalue = [0, 1]"] ;
140 -> 141 ;
142 [label="Age <= 51.5\ngini = 0.049\nsamples = 79\nvalue = [77, 2]"] ;
140 -> 142 ;
143 [label="gini = 0.0\nsamples = 66\nvalue = [66, 0]"] ;
142 -> 143 ;
144 [label="MaritalStatus <= 1.5\ngini = 0.26\nsamples = 13\nvalue = [11, 2]"] ;
142 -> 144 ;
145 [label="gini = 0.0\nsamples = 11\nvalue = [11, 0]"] ;
144 -> 145 ;
146 [label="gini = 0.0\nsamples = 2\nvalue = [0, 2]"] ;
144 -> 146 ;
147 [label="MaritalStatus <= 1.5\ngini = 0.444\nsamples = 18\nvalue = [12, 6]"] ;
139 -> 147 ;
148 [label="TrainingTimesLastYear <= 4.5\ngini = 0.32\nsamples = 15\nvalue = [12, 3]"] ;
147 -> 148 ;
149 [label="gini = 0.0\nsamples = 12\nvalue = [12, 0]"] ;
148 -> 149 ;
150 [label="gini = 0.0\nsamples = 3\nvalue = [0, 3]"] ;
148 -> 150 ;
151 [label="gini = 0.0\nsamples = 3\nvalue = [0, 3]"] ;
147 -> 151 ;
152 [label="MonthlyIncome <= 104905.0\ngini = 0.444\nsamples = 18\nvalue = [12, 6]"] ;
138 -> 152 ;
153 [label="gini = 0.0\nsamples = 3\nvalue = [0, 3]"] ;
152 -> 153 ;
154 [label="NumCompaniesWorked <= 5.5\ngini = 0.32\nsamples = 15\nvalue = [12, 3]"] ;
152 -> 154 ;
155 [label="StockOptionLevel <= 0.5\ngini = 0.142\nsamples = 13\nvalue = [12, 1]"] ;
154 -> 155 ;
156 [label="EducationField  <= 4.0\ngini = 0.444\nsamples = 3\nvalue = [2, 1]"] ;
155 -> 156 ;
157 [label="gini = 0.0\nsamples = 1\nvalue = [0, 1]"] ;
156 -> 157 ;
158 [label="gini = 0.0\nsamples = 2\nvalue = [2, 0]"] ;
156 -> 158 ;
159 [label="gini = 0.0\nsamples = 10\nvalue = [10, 0]"] ;
155 -> 159 ;
160 [label="gini = 0.0\nsamples = 2\nvalue = [0, 2]"] ;
154 -> 160 ;
161 [label="TrainingTimesLastYear <= 2.5\ngini = 0.444\nsamples = 6\nvalue = [2, 4]"] ;
131 -> 161 ;
162 [label="gini = 0.0\nsamples = 2\nvalue = [2, 0]"] ;
161 -> 162 ;
163 [label="gini = 0.0\nsamples = 4\nvalue = [0, 4]"] ;
161 -> 163 ;
164 [label="MaritalStatus <= 1.5\ngini = 0.206\nsamples = 2499\nvalue = [2208, 291]"] ;
0 -> 164 [labeldistance=2.5, labelangle=-45, headlabel="False"] ;
165 [label="YearsAtCompany <= 38.0\ngini = 0.156\nsamples = 1744\nvalue = [1595, 149]"] ;
164 -> 165 ;
166 [label="NumCompaniesWorked <= 3.5\ngini = 0.155\nsamples = 1742\nvalue = [1595, 147]"] ;
165 -> 166 ;
167 [label="MonthlyIncome <= 23090.0\ngini = 0.124\nsamples = 1225\nvalue = [1144, 81]"] ;
166 -> 167 ;
168 [label="MonthlyIncome <= 22315.0\ngini = 0.265\nsamples = 127\nvalue = [107, 20]"] ;
167 -> 168 ;
169 [label="YearsAtCompany <= 28.5\ngini = 0.138\nsamples = 107\nvalue = [99, 8]"] ;
168 -> 169 ;
170 [label="DistanceFromHome <= 21.0\ngini = 0.108\nsamples = 105\nvalue = [99, 6]"] ;
169 -> 170 ;
171 [label="StockOptionLevel <= 1.5\ngini = 0.042\nsamples = 94\nvalue = [92, 2]"] ;
170 -> 171 ;
172 [label="gini = 0.0\nsamples = 81\nvalue = [81, 0]"] ;
171 -> 172 ;
173 [label="DistanceFromHome <= 9.5\ngini = 0.26\nsamples = 13\nvalue = [11, 2]"] ;
171 -> 173 ;
174 [label="gini = 0.0\nsamples = 11\nvalue = [11, 0]"] ;
173 -> 174 ;
175 [label="gini = 0.0\nsamples = 2\nvalue = [0, 2]"] ;
173 -> 175 ;
176 [label="MonthlyIncome <= 21380.0\ngini = 0.463\nsamples = 11\nvalue = [7, 4]"] ;
170 -> 176 ;
177 [label="gini = 0.0\nsamples = 4\nvalue = [0, 4]"] ;
176 -> 177 ;
178 [label="gini = 0.0\nsamples = 7\nvalue = [7, 0]"] ;
176 -> 178 ;
179 [label="gini = 0.0\nsamples = 2\nvalue = [0, 2]"] ;
169 -> 179 ;
180 [label="Age <= 29.5\ngini = 0.48\nsamples = 20\nvalue = [8, 12]"] ;
168 -> 180 ;
181 [label="gini = 0.0\nsamples = 9\nvalue = [0, 9]"] ;
180 -> 181 ;
182 [label="YearsAtCompany <= 13.0\ngini = 0.397\nsamples = 11\nvalue = [8, 3]"] ;
180 -> 182 ;
183 [label="gini = 0.0\nsamples = 8\nvalue = [8, 0]"] ;
182 -> 183 ;
184 [label="gini = 0.0\nsamples = 3\nvalue = [0, 3]"] ;
182 -> 184 ;
185 [label="MonthlyIncome <= 197995.0\ngini = 0.105\nsamples = 1098\nvalue = [1037, 61]"] ;
167 -> 185 ;
186 [label="YearsSinceLastPromotion <= 5.5\ngini = 0.101\nsamples = 1092\nvalue = [1034, 58]"] ;
185 -> 186 ;
187 [label="Age <= 26.5\ngini = 0.071\nsamples = 873\nvalue = [841, 32]"] ;
186 -> 187 ;
188 [label="YearsWithCurrManager <= 0.5\ngini = 0.207\nsamples = 94\nvalue = [83, 11]"] ;
187 -> 188 ;
189 [label="gini = 0.0\nsamples = 2\nvalue = [0, 2]"] ;
188 -> 189 ;
190 [label="EducationField  <= 4.5\ngini = 0.177\nsamples = 92\nvalue = [83, 9]"] ;
188 -> 190 ;
191 [label="EducationField  <= 0.5\ngini = 0.131\nsamples = 85\nvalue = [79, 6]"] ;
190 -> 191 ;
192 [label="gini = 0.0\nsamples = 1\nvalue = [0, 1]"] ;
191 -> 192 ;
193 [label="YearsAtCompany <= 3.5\ngini = 0.112\nsamples = 84\nvalue = [79, 5]"] ;
191 -> 193 ;
194 [label="DistanceFromHome <= 11.5\ngini = 0.332\nsamples = 19\nvalue = [15, 4]"] ;
193 -> 194 ;
195 [label="NumCompaniesWorked <= 1.5\ngini = 0.117\nsamples = 16\nvalue = [15, 1]"] ;
194 -> 195 ;
196 [label="gini = 0.0\nsamples = 13\nvalue = [13, 0]"] ;
195 -> 196 ;
197 [label="JobRole <= 3.0\ngini = 0.444\nsamples = 3\nvalue = [2, 1]"] ;
195 -> 197 ;
198 [label="gini = 0.0\nsamples = 2\nvalue = [2, 0]"] ;
197 -> 198 ;
199 [label="gini = 0.0\nsamples = 1\nvalue = [0, 1]"] ;
197 -> 199 ;
200 [label="gini = 0.0\nsamples = 3\nvalue = [0, 3]"] ;
194 -> 200 ;
201 [label="PercentSalaryHike <= 20.5\ngini = 0.03\nsamples = 65\nvalue = [64, 1]"] ;
193 -> 201 ;
202 [label="gini = 0.0\nsamples = 54\nvalue = [54, 0]"] ;
201 -> 202 ;
203 [label="MonthlyIncome <= 44130.0\ngini = 0.165\nsamples = 11\nvalue = [10, 1]"] ;
201 -> 203 ;
204 [label="NumCompaniesWorked <= 0.5\ngini = 0.444\nsamples = 3\nvalue = [2, 1]"] ;
203 -> 204 ;
205 [label="gini = 0.0\nsamples = 2\nvalue = [2, 0]"] ;
204 -> 205 ;
206 [label="gini = 0.0\nsamples = 1\nvalue = [0, 1]"] ;
204 -> 206 ;
207 [label="gini = 0.0\nsamples = 8\nvalue = [8, 0]"] ;
203 -> 207 ;
208 [label="StockOptionLevel <= 1.5\ngini = 0.49\nsamples = 7\nvalue = [4, 3]"] ;
190 -> 208 ;
209 [label="gini = 0.0\nsamples = 4\nvalue = [4, 0]"] ;
208 -> 209 ;
210 [label="gini = 0.0\nsamples = 3\nvalue = [0, 3]"] ;
208 -> 210 ;
211 [label="JobRole <= 7.5\ngini = 0.052\nsamples = 779\nvalue = [758, 21]"] ;
187 -> 211 ;
212 [label="PercentSalaryHike <= 24.5\ngini = 0.04\nsamples = 741\nvalue = [726, 15]"] ;
211 -> 212 ;
213 [label="MonthlyIncome <= 48990.0\ngini = 0.035\nsamples = 734\nvalue = [721, 13]"] ;
212 -> 213 ;
214 [label="Age <= 43.5\ngini = 0.006\nsamples = 332\nvalue = [331, 1]"] ;
213 -> 214 ;
215 [label="gini = 0.0\nsamples = 249\nvalue = [249, 0]"] ;
214 -> 215 ;
216 [label="Age <= 44.5\ngini = 0.024\nsamples = 83\nvalue = [82, 1]"] ;
214 -> 216 ;
217 [label="Education <= 3.5\ngini = 0.245\nsamples = 7\nvalue = [6, 1]"] ;
216 -> 217 ;
218 [label="gini = 0.0\nsamples = 6\nvalue = [6, 0]"] ;
217 -> 218 ;
219 [label="gini = 0.0\nsamples = 1\nvalue = [0, 1]"] ;
217 -> 219 ;
220 [label="gini = 0.0\nsamples = 76\nvalue = [76, 0]"] ;
216 -> 220 ;
221 [label="MonthlyIncome <= 49340.0\ngini = 0.058\nsamples = 402\nvalue = [390, 12]"] ;
213 -> 221 ;
222 [label="gini = 0.0\nsamples = 2\nvalue = [0, 2]"] ;
221 -> 222 ;
223 [label="MonthlyIncome <= 96060.0\ngini = 0.049\nsamples = 400\nvalue = [390, 10]"] ;
221 -> 223 ;
224 [label="MonthlyIncome <= 95745.0\ngini = 0.079\nsamples = 242\nvalue = [232, 10]"] ;
223 -> 224 ;
225 [label="MonthlyIncome <= 62580.0\ngini = 0.064\nsamples = 240\nvalue = [232, 8]"] ;
224 -> 225 ;
226 [label="EducationField  <= 0.5\ngini = 0.017\nsamples = 115\nvalue = [114, 1]"] ;
225 -> 226 ;
227 [label="gini = 0.0\nsamples = 1\nvalue = [0, 1]"] ;
226 -> 227 ;
228 [label="gini = 0.0\nsamples = 114\nvalue = [114, 0]"] ;
226 -> 228 ;
229 [label="MonthlyIncome <= 62830.0\ngini = 0.106\nsamples = 125\nvalue = [118, 7]"] ;
225 -> 229 ;
230 [label="gini = 0.0\nsamples = 2\nvalue = [0, 2]"] ;
229 -> 230 ;
231 [label="TrainingTimesLastYear <= 2.5\ngini = 0.078\nsamples = 123\nvalue = [118, 5]"] ;
229 -> 231 ;
232 [label="DistanceFromHome <= 8.5\ngini = 0.187\nsamples = 48\nvalue = [43, 5]"] ;
231 -> 232 ;
233 [label="MonthlyIncome <= 67885.0\ngini = 0.34\nsamples = 23\nvalue = [18, 5]"] ;
232 -> 233 ;
234 [label="gini = 0.0\nsamples = 9\nvalue = [9, 0]"] ;
233 -> 234 ;
235 [label="Education <= 3.5\ngini = 0.459\nsamples = 14\nvalue = [9, 5]"] ;
233 -> 235 ;
236 [label="MonthlyIncome <= 71770.0\ngini = 0.469\nsamples = 8\nvalue = [3, 5]"] ;
235 -> 236 ;
237 [label="gini = 0.0\nsamples = 4\nvalue = [0, 4]"] ;
236 -> 237 ;
238 [label="JobRole <= 2.0\ngini = 0.375\nsamples = 4\nvalue = [3, 1]"] ;
236 -> 238 ;
239 [label="gini = 0.0\nsamples = 1\nvalue = [0, 1]"] ;
238 -> 239 ;
240 [label="gini = 0.0\nsamples = 3\nvalue = [3, 0]"] ;
238 -> 240 ;
241 [label="gini = 0.0\nsamples = 6\nvalue = [6, 0]"] ;
235 -> 241 ;
242 [label="gini = 0.0\nsamples = 25\nvalue = [25, 0]"] ;
232 -> 242 ;
243 [label="gini = 0.0\nsamples = 75\nvalue = [75, 0]"] ;
231 -> 243 ;
244 [label="gini = 0.0\nsamples = 2\nvalue = [0, 2]"] ;
224 -> 244 ;
245 [label="gini = 0.0\nsamples = 158\nvalue = [158, 0]"] ;
223 -> 245 ;
246 [label="MonthlyIncome <= 28940.0\ngini = 0.408\nsamples = 7\nvalue = [5, 2]"] ;
212 -> 246 ;
247 [label="gini = 0.0\nsamples = 2\nvalue = [0, 2]"] ;
246 -> 247 ;
248 [label="gini = 0.0\nsamples = 5\nvalue = [5, 0]"] ;
246 -> 248 ;
249 [label="StockOptionLevel <= 0.5\ngini = 0.266\nsamples = 38\nvalue = [32, 6]"] ;
211 -> 249 ;
250 [label="gini = 0.0\nsamples = 26\nvalue = [26, 0]"] ;
249 -> 250 ;
251 [label="PercentSalaryHike <= 16.0\ngini = 0.5\nsamples = 12\nvalue = [6, 6]"] ;
249 -> 251 ;
252 [label="gini = 0.0\nsamples = 6\nvalue = [0, 6]"] ;
251 -> 252 ;
253 [label="gini = 0.0\nsamples = 6\nvalue = [6, 0]"] ;
251 -> 253 ;
254 [label="PercentSalaryHike <= 13.5\ngini = 0.209\nsamples = 219\nvalue = [193, 26]"] ;
186 -> 254 ;
255 [label="EducationField  <= 1.5\ngini = 0.369\nsamples = 82\nvalue = [62, 20]"] ;
254 -> 255 ;
256 [label="gini = 0.0\nsamples = 32\nvalue = [32, 0]"] ;
255 -> 256 ;
257 [label="StockOptionLevel <= 1.5\ngini = 0.48\nsamples = 50\nvalue = [30, 20]"] ;
255 -> 257 ;
258 [label="DistanceFromHome <= 4.5\ngini = 0.434\nsamples = 44\nvalue = [30, 14]"] ;
257 -> 258 ;
259 [label="gini = 0.0\nsamples = 17\nvalue = [17, 0]"] ;
258 -> 259 ;
260 [label="MonthlyIncome <= 102670.0\ngini = 0.499\nsamples = 27\nvalue = [13, 14]"] ;
258 -> 260 ;
261 [label="PercentSalaryHike <= 11.5\ngini = 0.346\nsamples = 18\nvalue = [4, 14]"] ;
260 -> 261 ;
262 [label="YearsAtCompany <= 12.5\ngini = 0.49\nsamples = 7\nvalue = [4, 3]"] ;
261 -> 262 ;
263 [label="gini = 0.0\nsamples = 4\nvalue = [4, 0]"] ;
262 -> 263 ;
264 [label="gini = 0.0\nsamples = 3\nvalue = [0, 3]"] ;
262 -> 264 ;
265 [label="gini = 0.0\nsamples = 11\nvalue = [0, 11]"] ;
261 -> 265 ;
266 [label="gini = 0.0\nsamples = 9\nvalue = [9, 0]"] ;
260 -> 266 ;
267 [label="gini = 0.0\nsamples = 6\nvalue = [0, 6]"] ;
257 -> 267 ;
268 [label="Age <= 48.5\ngini = 0.084\nsamples = 137\nvalue = [131, 6]"] ;
254 -> 268 ;
269 [label="YearsSinceLastPromotion <= 6.5\ngini = 0.034\nsamples = 117\nvalue = [115, 2]"] ;
268 -> 269 ;
270 [label="JobRole <= 6.5\ngini = 0.142\nsamples = 26\nvalue = [24, 2]"] ;
269 -> 270 ;
271 [label="gini = 0.0\nsamples = 20\nvalue = [20, 0]"] ;
270 -> 271 ;
272 [label="Education <= 2.5\ngini = 0.444\nsamples = 6\nvalue = [4, 2]"] ;
270 -> 272 ;
273 [label="gini = 0.0\nsamples = 2\nvalue = [0, 2]"] ;
272 -> 273 ;
274 [label="gini = 0.0\nsamples = 4\nvalue = [4, 0]"] ;
272 -> 274 ;
275 [label="gini = 0.0\nsamples = 91\nvalue = [91, 0]"] ;
269 -> 275 ;
276 [label="MonthlyIncome <= 45360.0\ngini = 0.32\nsamples = 20\nvalue = [16, 4]"] ;
268 -> 276 ;
277 [label="gini = 0.0\nsamples = 13\nvalue = [13, 0]"] ;
276 -> 277 ;
278 [label="PercentSalaryHike <= 19.0\ngini = 0.49\nsamples = 7\nvalue = [3, 4]"] ;
276 -> 278 ;
279 [label="gini = 0.0\nsamples = 4\nvalue = [0, 4]"] ;
278 -> 279 ;
280 [label="gini = 0.0\nsamples = 3\nvalue = [3, 0]"] ;
278 -> 280 ;
281 [label="YearsAtCompany <= 4.0\ngini = 0.5\nsamples = 6\nvalue = [3, 3]"] ;
185 -> 281 ;
282 [label="gini = 0.0\nsamples = 3\nvalue = [0, 3]"] ;
281 -> 282 ;
283 [label="gini = 0.0\nsamples = 3\nvalue = [3, 0]"] ;
281 -> 283 ;
284 [label="Age <= 28.5\ngini = 0.223\nsamples = 517\nvalue = [451, 66]"] ;
166 -> 284 ;
285 [label="Age <= 27.5\ngini = 0.497\nsamples = 13\nvalue = [6, 7]"] ;
284 -> 285 ;
286 [label="JobRole <= 6.5\ngini = 0.375\nsamples = 8\nvalue = [6, 2]"] ;
285 -> 286 ;
287 [label="YearsSinceLastPromotion <= 4.0\ngini = 0.444\nsamples = 3\nvalue = [1, 2]"] ;
286 -> 287 ;
288 [label="gini = 0.0\nsamples = 2\nvalue = [0, 2]"] ;
287 -> 288 ;
289 [label="gini = 0.0\nsamples = 1\nvalue = [1, 0]"] ;
287 -> 289 ;
290 [label="gini = 0.0\nsamples = 5\nvalue = [5, 0]"] ;
286 -> 290 ;
291 [label="gini = 0.0\nsamples = 5\nvalue = [0, 5]"] ;
285 -> 291 ;
292 [label="PercentSalaryHike <= 21.5\ngini = 0.207\nsamples = 504\nvalue = [445, 59]"] ;
284 -> 292 ;
293 [label="EducationField  <= 0.5\ngini = 0.175\nsamples = 454\nvalue = [410, 44]"] ;
292 -> 293 ;
294 [label="PercentSalaryHike <= 19.0\ngini = 0.49\nsamples = 7\nvalue = [3, 4]"] ;
293 -> 294 ;
295 [label="gini = 0.0\nsamples = 4\nvalue = [0, 4]"] ;
294 -> 295 ;
296 [label="gini = 0.0\nsamples = 3\nvalue = [3, 0]"] ;
294 -> 296 ;
297 [label="MonthlyIncome <= 10450.0\ngini = 0.163\nsamples = 447\nvalue = [407, 40]"] ;
293 -> 297 ;
298 [label="gini = 0.0\nsamples = 1\nvalue = [0, 1]"] ;
297 -> 298 ;
299 [label="YearsWithCurrManager <= 1.5\ngini = 0.16\nsamples = 446\nvalue = [407, 39]"] ;
297 -> 299 ;
300 [label="MaritalStatus <= 0.5\ngini = 0.335\nsamples = 47\nvalue = [37, 10]"] ;
299 -> 300 ;
301 [label="NumCompaniesWorked <= 8.0\ngini = 0.48\nsamples = 10\nvalue = [4, 6]"] ;
300 -> 301 ;
302 [label="gini = 0.0\nsamples = 6\nvalue = [0, 6]"] ;
301 -> 302 ;
303 [label="gini = 0.0\nsamples = 4\nvalue = [4, 0]"] ;
301 -> 303 ;
304 [label="Age <= 35.5\ngini = 0.193\nsamples = 37\nvalue = [33, 4]"] ;
300 -> 304 ;
305 [label="MonthlyIncome <= 104795.0\ngini = 0.49\nsamples = 7\nvalue = [3, 4]"] ;
304 -> 305 ;
306 [label="gini = 0.0\nsamples = 4\nvalue = [0, 4]"] ;
305 -> 306 ;
307 [label="gini = 0.0\nsamples = 3\nvalue = [3, 0]"] ;
305 -> 307 ;
308 [label="gini = 0.0\nsamples = 30\nvalue = [30, 0]"] ;
304 -> 308 ;
309 [label="TrainingTimesLastYear <= 2.5\ngini = 0.135\nsamples = 399\nvalue = [370, 29]"] ;
299 -> 309 ;
310 [label="PercentSalaryHike <= 11.5\ngini = 0.222\nsamples = 165\nvalue = [144, 21]"] ;
309 -> 310 ;
311 [label="MonthlyIncome <= 39370.0\ngini = 0.499\nsamples = 21\nvalue = [11, 10]"] ;
310 -> 311 ;
312 [label="gini = 0.0\nsamples = 7\nvalue = [7, 0]"] ;
311 -> 312 ;
313 [label="MonthlyIncome <= 81510.0\ngini = 0.408\nsamples = 14\nvalue = [4, 10]"] ;
311 -> 313 ;
314 [label="gini = 0.0\nsamples = 8\nvalue = [0, 8]"] ;
313 -> 314 ;
315 [label="DistanceFromHome <= 1.5\ngini = 0.444\nsamples = 6\nvalue = [4, 2]"] ;
313 -> 315 ;
316 [label="gini = 0.0\nsamples = 2\nvalue = [0, 2]"] ;
315 -> 316 ;
317 [label="gini = 0.0\nsamples = 4\nvalue = [4, 0]"] ;
315 -> 317 ;
318 [label="PercentSalaryHike <= 18.5\ngini = 0.141\nsamples = 144\nvalue = [133, 11]"] ;
310 -> 318 ;
319 [label="Age <= 29.5\ngini = 0.049\nsamples = 119\nvalue = [116, 3]"] ;
318 -> 319 ;
320 [label="JobLevel <= 3.5\ngini = 0.5\nsamples = 6\nvalue = [3, 3]"] ;
319 -> 320 ;
321 [label="gini = 0.0\nsamples = 3\nvalue = [0, 3]"] ;
320 -> 321 ;
322 [label="gini = 0.0\nsamples = 3\nvalue = [3, 0]"] ;
320 -> 322 ;
323 [label="gini = 0.0\nsamples = 113\nvalue = [113, 0]"] ;
319 -> 323 ;
324 [label="Age <= 34.5\ngini = 0.435\nsamples = 25\nvalue = [17, 8]"] ;
318 -> 324 ;
325 [label="gini = 0.0\nsamples = 4\nvalue = [0, 4]"] ;
324 -> 325 ;
326 [label="Age <= 50.5\ngini = 0.308\nsamples = 21\nvalue = [17, 4]"] ;
324 -> 326 ;
327 [label="gini = 0.0\nsamples = 17\nvalue = [17, 0]"] ;
326 -> 327 ;
328 [label="gini = 0.0\nsamples = 4\nvalue = [0, 4]"] ;
326 -> 328 ;
329 [label="MonthlyIncome <= 22085.0\ngini = 0.066\nsamples = 234\nvalue = [226, 8]"] ;
309 -> 329 ;
330 [label="Age <= 30.5\ngini = 0.408\nsamples = 14\nvalue = [10, 4]"] ;
329 -> 330 ;
331 [label="gini = 0.0\nsamples = 3\nvalue = [0, 3]"] ;
330 -> 331 ;
332 [label="YearsSinceLastPromotion <= 2.0\ngini = 0.165\nsamples = 11\nvalue = [10, 1]"] ;
330 -> 332 ;
333 [label="gini = 0.0\nsamples = 10\nvalue = [10, 0]"] ;
332 -> 333 ;
334 [label="gini = 0.0\nsamples = 1\nvalue = [0, 1]"] ;
332 -> 334 ;
335 [label="YearsSinceLastPromotion <= 10.0\ngini = 0.036\nsamples = 220\nvalue = [216, 4]"] ;
329 -> 335 ;
336 [label="PercentSalaryHike <= 18.5\ngini = 0.01\nsamples = 196\nvalue = [195, 1]"] ;
335 -> 336 ;
337 [label="gini = 0.0\nsamples = 174\nvalue = [174, 0]"] ;
336 -> 337 ;
338 [label="DistanceFromHome <= 3.5\ngini = 0.087\nsamples = 22\nvalue = [21, 1]"] ;
336 -> 338 ;
339 [label="PercentSalaryHike <= 19.5\ngini = 0.375\nsamples = 4\nvalue = [3, 1]"] ;
338 -> 339 ;
340 [label="gini = 0.0\nsamples = 1\nvalue = [0, 1]"] ;
339 -> 340 ;
341 [label="gini = 0.0\nsamples = 3\nvalue = [3, 0]"] ;
339 -> 341 ;
342 [label="gini = 0.0\nsamples = 18\nvalue = [18, 0]"] ;
338 -> 342 ;
343 [label="JobRole <= 1.5\ngini = 0.219\nsamples = 24\nvalue = [21, 3]"] ;
335 -> 343 ;
344 [label="gini = 0.0\nsamples = 3\nvalue = [0, 3]"] ;
343 -> 344 ;
345 [label="gini = 0.0\nsamples = 21\nvalue = [21, 0]"] ;
343 -> 345 ;
346 [label="NumCompaniesWorked <= 6.5\ngini = 0.42\nsamples = 50\nvalue = [35, 15]"] ;
292 -> 346 ;
347 [label="YearsSinceLastPromotion <= 0.5\ngini = 0.219\nsamples = 32\nvalue = [28, 4]"] ;
346 -> 347 ;
348 [label="Age <= 34.5\ngini = 0.494\nsamples = 9\nvalue = [5, 4]"] ;
347 -> 348 ;
349 [label="gini = 0.0\nsamples = 3\nvalue = [0, 3]"] ;
348 -> 349 ;
350 [label="MonthlyIncome <= 27760.0\ngini = 0.278\nsamples = 6\nvalue = [5, 1]"] ;
348 -> 350 ;
351 [label="gini = 0.0\nsamples = 1\nvalue = [0, 1]"] ;
350 -> 351 ;
352 [label="gini = 0.0\nsamples = 5\nvalue = [5, 0]"] ;
350 -> 352 ;
353 [label="gini = 0.0\nsamples = 23\nvalue = [23, 0]"] ;
347 -> 353 ;
354 [label="DistanceFromHome <= 21.0\ngini = 0.475\nsamples = 18\nvalue = [7, 11]"] ;
346 -> 354 ;
355 [label="StockOptionLevel <= 1.5\ngini = 0.337\nsamples = 14\nvalue = [3, 11]"] ;
354 -> 355 ;
356 [label="gini = 0.0\nsamples = 11\nvalue = [0, 11]"] ;
355 -> 356 ;
357 [label="gini = 0.0\nsamples = 3\nvalue = [3, 0]"] ;
355 -> 357 ;
358 [label="gini = 0.0\nsamples = 4\nvalue = [4, 0]"] ;
354 -> 358 ;
359 [label="gini = 0.0\nsamples = 2\nvalue = [0, 2]"] ;
165 -> 359 ;
360 [label="TrainingTimesLastYear <= 3.5\ngini = 0.305\nsamples = 755\nvalue = [613, 142]"] ;
164 -> 360 ;
361 [label="PercentSalaryHike <= 23.5\ngini = 0.353\nsamples = 573\nvalue = [442, 131]"] ;
360 -> 361 ;
362 [label="TrainingTimesLastYear <= 0.5\ngini = 0.345\nsamples = 565\nvalue = [440, 125]"] ;
361 -> 362 ;
363 [label="YearsWithCurrManager <= 2.5\ngini = 0.499\nsamples = 29\nvalue = [15, 14]"] ;
362 -> 363 ;
364 [label="gini = 0.0\nsamples = 8\nvalue = [8, 0]"] ;
363 -> 364 ;
365 [label="PercentSalaryHike <= 13.5\ngini = 0.444\nsamples = 21\nvalue = [7, 14]"] ;
363 -> 365 ;
366 [label="gini = 0.0\nsamples = 5\nvalue = [5, 0]"] ;
365 -> 366 ;
367 [label="MonthlyIncome <= 140125.0\ngini = 0.219\nsamples = 16\nvalue = [2, 14]"] ;
365 -> 367 ;
368 [label="gini = 0.0\nsamples = 14\nvalue = [0, 14]"] ;
367 -> 368 ;
369 [label="gini = 0.0\nsamples = 2\nvalue = [2, 0]"] ;
367 -> 369 ;
370 [label="YearsSinceLastPromotion <= 5.5\ngini = 0.328\nsamples = 536\nvalue = [425, 111]"] ;
362 -> 370 ;
371 [label="YearsAtCompany <= 6.5\ngini = 0.289\nsamples = 433\nvalue = [357, 76]"] ;
370 -> 371 ;
372 [label="Education <= 2.5\ngini = 0.385\nsamples = 250\nvalue = [185, 65]"] ;
371 -> 372 ;
373 [label="DistanceFromHome <= 2.5\ngini = 0.478\nsamples = 81\nvalue = [49, 32]"] ;
372 -> 373 ;
374 [label="YearsWithCurrManager <= 0.5\ngini = 0.172\nsamples = 21\nvalue = [19, 2]"] ;
373 -> 374 ;
375 [label="gini = 0.0\nsamples = 2\nvalue = [0, 2]"] ;
374 -> 375 ;
376 [label="gini = 0.0\nsamples = 19\nvalue = [19, 0]"] ;
374 -> 376 ;
377 [label="Age <= 25.5\ngini = 0.5\nsamples = 60\nvalue = [30, 30]"] ;
373 -> 377 ;
378 [label="gini = 0.0\nsamples = 10\nvalue = [10, 0]"] ;
377 -> 378 ;
379 [label="EducationField  <= 2.5\ngini = 0.48\nsamples = 50\nvalue = [20, 30]"] ;
377 -> 379 ;
380 [label="JobRole <= 7.5\ngini = 0.285\nsamples = 29\nvalue = [5, 24]"] ;
379 -> 380 ;
381 [label="MonthlyIncome <= 23725.0\ngini = 0.142\nsamples = 26\nvalue = [2, 24]"] ;
380 -> 381 ;
382 [label="JobRole <= 6.5\ngini = 0.408\nsamples = 7\nvalue = [2, 5]"] ;
381 -> 382 ;
383 [label="gini = 0.0\nsamples = 5\nvalue = [0, 5]"] ;
382 -> 383 ;
384 [label="gini = 0.0\nsamples = 2\nvalue = [2, 0]"] ;
382 -> 384 ;
385 [label="gini = 0.0\nsamples = 19\nvalue = [0, 19]"] ;
381 -> 385 ;
386 [label="gini = 0.0\nsamples = 3\nvalue = [3, 0]"] ;
380 -> 386 ;
387 [label="YearsWithCurrManager <= 1.5\ngini = 0.408\nsamples = 21\nvalue = [15, 6]"] ;
379 -> 387 ;
388 [label="gini = 0.0\nsamples = 6\nvalue = [0, 6]"] ;
387 -> 388 ;
389 [label="gini = 0.0\nsamples = 15\nvalue = [15, 0]"] ;
387 -> 389 ;
390 [label="DistanceFromHome <= 27.0\ngini = 0.314\nsamples = 169\nvalue = [136, 33]"] ;
372 -> 390 ;
391 [label="EducationField  <= 1.5\ngini = 0.296\nsamples = 166\nvalue = [136, 30]"] ;
390 -> 391 ;
392 [label="MonthlyIncome <= 46860.0\ngini = 0.395\nsamples = 85\nvalue = [62, 23]"] ;
391 -> 392 ;
393 [label="Age <= 46.0\ngini = 0.198\nsamples = 45\nvalue = [40, 5]"] ;
392 -> 393 ;
394 [label="gini = 0.0\nsamples = 39\nvalue = [39, 0]"] ;
393 -> 394 ;
395 [label="JobLevel <= 1.5\ngini = 0.278\nsamples = 6\nvalue = [1, 5]"] ;
393 -> 395 ;
396 [label="gini = 0.0\nsamples = 5\nvalue = [0, 5]"] ;
395 -> 396 ;
397 [label="gini = 0.0\nsamples = 1\nvalue = [1, 0]"] ;
395 -> 397 ;
398 [label="MonthlyIncome <= 56655.0\ngini = 0.495\nsamples = 40\nvalue = [22, 18]"] ;
392 -> 398 ;
399 [label="PercentSalaryHike <= 15.0\ngini = 0.153\nsamples = 12\nvalue = [1, 11]"] ;
398 -> 399 ;
400 [label="gini = 0.0\nsamples = 11\nvalue = [0, 11]"] ;
399 -> 400 ;
401 [label="gini = 0.0\nsamples = 1\nvalue = [1, 0]"] ;
399 -> 401 ;
402 [label="YearsSinceLastPromotion <= 0.5\ngini = 0.375\nsamples = 28\nvalue = [21, 7]"] ;
398 -> 402 ;
403 [label="MonthlyIncome <= 71570.0\ngini = 0.463\nsamples = 11\nvalue = [4, 7]"] ;
402 -> 403 ;
404 [label="gini = 0.0\nsamples = 4\nvalue = [4, 0]"] ;
403 -> 404 ;
405 [label="gini = 0.0\nsamples = 7\nvalue = [0, 7]"] ;
403 -> 405 ;
406 [label="gini = 0.0\nsamples = 17\nvalue = [17, 0]"] ;
402 -> 406 ;
407 [label="MonthlyIncome <= 189045.0\ngini = 0.158\nsamples = 81\nvalue = [74, 7]"] ;
391 -> 407 ;
408 [label="NumCompaniesWorked <= 7.5\ngini = 0.119\nsamples = 79\nvalue = [74, 5]"] ;
407 -> 408 ;
409 [label="Education <= 4.5\ngini = 0.054\nsamples = 72\nvalue = [70, 2]"] ;
408 -> 409 ;
410 [label="YearsWithCurrManager <= 0.5\ngini = 0.029\nsamples = 69\nvalue = [68, 1]"] ;
409 -> 410 ;
411 [label="Age <= 35.5\ngini = 0.245\nsamples = 7\nvalue = [6, 1]"] ;
410 -> 411 ;
412 [label="gini = 0.0\nsamples = 6\nvalue = [6, 0]"] ;
411 -> 412 ;
413 [label="gini = 0.0\nsamples = 1\nvalue = [0, 1]"] ;
411 -> 413 ;
414 [label="gini = 0.0\nsamples = 62\nvalue = [62, 0]"] ;
410 -> 414 ;
415 [label="NumCompaniesWorked <= 3.5\ngini = 0.444\nsamples = 3\nvalue = [2, 1]"] ;
409 -> 415 ;
416 [label="gini = 0.0\nsamples = 1\nvalue = [0, 1]"] ;
415 -> 416 ;
417 [label="gini = 0.0\nsamples = 2\nvalue = [2, 0]"] ;
415 -> 417 ;
418 [label="PercentSalaryHike <= 14.5\ngini = 0.49\nsamples = 7\nvalue = [4, 3]"] ;
408 -> 418 ;
419 [label="gini = 0.0\nsamples = 4\nvalue = [4, 0]"] ;
418 -> 419 ;
420 [label="gini = 0.0\nsamples = 3\nvalue = [0, 3]"] ;
418 -> 420 ;
421 [label="gini = 0.0\nsamples = 2\nvalue = [0, 2]"] ;
407 -> 421 ;
422 [label="gini = 0.0\nsamples = 3\nvalue = [0, 3]"] ;
390 -> 422 ;
423 [label="StockOptionLevel <= 1.5\ngini = 0.113\nsamples = 183\nvalue = [172, 11]"] ;
371 -> 423 ;
424 [label="JobRole <= 7.5\ngini = 0.05\nsamples = 155\nvalue = [151, 4]"] ;
423 -> 424 ;
425 [label="JobLevel <= 4.5\ngini = 0.027\nsamples = 147\nvalue = [145, 2]"] ;
424 -> 425 ;
426 [label="gini = 0.0\nsamples = 137\nvalue = [137, 0]"] ;
425 -> 426 ;
427 [label="Education <= 3.5\ngini = 0.32\nsamples = 10\nvalue = [8, 2]"] ;
425 -> 427 ;
428 [label="gini = 0.0\nsamples = 8\nvalue = [8, 0]"] ;
427 -> 428 ;
429 [label="gini = 0.0\nsamples = 2\nvalue = [0, 2]"] ;
427 -> 429 ;
430 [label="MonthlyIncome <= 43440.0\ngini = 0.375\nsamples = 8\nvalue = [6, 2]"] ;
424 -> 430 ;
431 [label="gini = 0.0\nsamples = 6\nvalue = [6, 0]"] ;
430 -> 431 ;
432 [label="gini = 0.0\nsamples = 2\nvalue = [0, 2]"] ;
430 -> 432 ;
433 [label="EducationField  <= 1.5\ngini = 0.375\nsamples = 28\nvalue = [21, 7]"] ;
423 -> 433 ;
434 [label="YearsAtCompany <= 8.5\ngini = 0.469\nsamples = 8\nvalue = [3, 5]"] ;
433 -> 434 ;
435 [label="gini = 0.0\nsamples = 3\nvalue = [3, 0]"] ;
434 -> 435 ;
436 [label="gini = 0.0\nsamples = 5\nvalue = [0, 5]"] ;
434 -> 436 ;
437 [label="YearsSinceLastPromotion <= 2.5\ngini = 0.18\nsamples = 20\nvalue = [18, 2]"] ;
433 -> 437 ;
438 [label="gini = 0.0\nsamples = 15\nvalue = [15, 0]"] ;
437 -> 438 ;
439 [label="YearsAtCompany <= 11.0\ngini = 0.48\nsamples = 5\nvalue = [3, 2]"] ;
437 -> 439 ;
440 [label="gini = 0.0\nsamples = 2\nvalue = [0, 2]"] ;
439 -> 440 ;
441 [label="gini = 0.0\nsamples = 3\nvalue = [3, 0]"] ;
439 -> 441 ;
442 [label="Age <= 32.5\ngini = 0.449\nsamples = 103\nvalue = [68, 35]"] ;
370 -> 442 ;
443 [label="JobLevel <= 2.5\ngini = 0.337\nsamples = 14\nvalue = [3, 11]"] ;
442 -> 443 ;
444 [label="gini = 0.0\nsamples = 11\nvalue = [0, 11]"] ;
443 -> 444 ;
445 [label="gini = 0.0\nsamples = 3\nvalue = [3, 0]"] ;
443 -> 445 ;
446 [label="MonthlyIncome <= 69175.0\ngini = 0.394\nsamples = 89\nvalue = [65, 24]"] ;
442 -> 446 ;
447 [label="JobLevel <= 3.5\ngini = 0.469\nsamples = 64\nvalue = [40, 24]"] ;
446 -> 447 ;
448 [label="TrainingTimesLastYear <= 1.5\ngini = 0.428\nsamples = 58\nvalue = [40, 18]"] ;
447 -> 448 ;
449 [label="gini = 0.0\nsamples = 3\nvalue = [0, 3]"] ;
448 -> 449 ;
450 [label="Age <= 56.0\ngini = 0.397\nsamples = 55\nvalue = [40, 15]"] ;
448 -> 450 ;
451 [label="Age <= 35.5\ngini = 0.355\nsamples = 52\nvalue = [40, 12]"] ;
450 -> 451 ;
452 [label="JobRole <= 1.5\ngini = 0.486\nsamples = 12\nvalue = [5, 7]"] ;
451 -> 452 ;
453 [label="gini = 0.0\nsamples = 5\nvalue = [5, 0]"] ;
452 -> 453 ;
454 [label="gini = 0.0\nsamples = 7\nvalue = [0, 7]"] ;
452 -> 454 ;
455 [label="Education <= 1.5\ngini = 0.219\nsamples = 40\nvalue = [35, 5]"] ;
451 -> 455 ;
456 [label="gini = 0.0\nsamples = 2\nvalue = [0, 2]"] ;
455 -> 456 ;
457 [label="YearsWithCurrManager <= 13.0\ngini = 0.145\nsamples = 38\nvalue = [35, 3]"] ;
455 -> 457 ;
458 [label="gini = 0.0\nsamples = 33\nvalue = [33, 0]"] ;
457 -> 458 ;
459 [label="NumCompaniesWorked <= 0.5\ngini = 0.48\nsamples = 5\nvalue = [2, 3]"] ;
457 -> 459 ;
460 [label="gini = 0.0\nsamples = 3\nvalue = [0, 3]"] ;
459 -> 460 ;
461 [label="gini = 0.0\nsamples = 2\nvalue = [2, 0]"] ;
459 -> 461 ;
462 [label="gini = 0.0\nsamples = 3\nvalue = [0, 3]"] ;
450 -> 462 ;
463 [label="gini = 0.0\nsamples = 6\nvalue = [0, 6]"] ;
447 -> 463 ;
464 [label="gini = 0.0\nsamples = 25\nvalue = [25, 0]"] ;
446 -> 464 ;
465 [label="YearsSinceLastPromotion <= 1.5\ngini = 0.375\nsamples = 8\nvalue = [2, 6]"] ;
361 -> 465 ;
466 [label="gini = 0.0\nsamples = 6\nvalue = [0, 6]"] ;
465 -> 466 ;
467 [label="gini = 0.0\nsamples = 2\nvalue = [2, 0]"] ;
465 -> 467 ;
468 [label="MonthlyIncome <= 19610.0\ngini = 0.114\nsamples = 182\nvalue = [171, 11]"] ;
360 -> 468 ;
469 [label="gini = 0.0\nsamples = 2\nvalue = [0, 2]"] ;
468 -> 469 ;
470 [label="Age <= 28.5\ngini = 0.095\nsamples = 180\nvalue = [171, 9]"] ;
468 -> 470 ;
471 [label="YearsAtCompany <= 9.0\ngini = 0.346\nsamples = 27\nvalue = [21, 6]"] ;
470 -> 471 ;
472 [label="Age <= 22.5\ngini = 0.269\nsamples = 25\nvalue = [21, 4]"] ;
471 -> 472 ;
473 [label="gini = 0.0\nsamples = 1\nvalue = [0, 1]"] ;
472 -> 473 ;
474 [label="Education <= 1.5\ngini = 0.219\nsamples = 24\nvalue = [21, 3]"] ;
472 -> 474 ;
475 [label="gini = 0.0\nsamples = 1\nvalue = [0, 1]"] ;
474 -> 475 ;
476 [label="YearsSinceLastPromotion <= 6.0\ngini = 0.159\nsamples = 23\nvalue = [21, 2]"] ;
474 -> 476 ;
477 [label="gini = 0.0\nsamples = 19\nvalue = [19, 0]"] ;
476 -> 477 ;
478 [label="PercentSalaryHike <= 12.5\ngini = 0.5\nsamples = 4\nvalue = [2, 2]"] ;
476 -> 478 ;
479 [label="gini = 0.0\nsamples = 2\nvalue = [0, 2]"] ;
478 -> 479 ;
480 [label="gini = 0.0\nsamples = 2\nvalue = [2, 0]"] ;
478 -> 480 ;
481 [label="gini = 0.0\nsamples = 2\nvalue = [0, 2]"] ;
471 -> 481 ;
482 [label="DistanceFromHome <= 22.0\ngini = 0.038\nsamples = 153\nvalue = [150, 3]"] ;
470 -> 482 ;
483 [label="gini = 0.0\nsamples = 140\nvalue = [140, 0]"] ;
482 -> 483 ;
484 [label="MonthlyIncome <= 126340.0\ngini = 0.355\nsamples = 13\nvalue = [10, 3]"] ;
482 -> 484 ;
485 [label="gini = 0.0\nsamples = 10\nvalue = [10, 0]"] ;
484 -> 485 ;
486 [label="gini = 0.0\nsamples = 3\nvalue = [0, 3]"] ;
484 -> 486 ;
}